<?xml version="1.0"?>
<opencv_storage>
<stage1>
  <maxWeakCount>6</maxWeakCount>
  <stageThreshold>-7.5975471735000610e-01</stageThreshold>
  <weakClassifiers>
    <_>
      <internalNodes>
        0 -1 45513 -4.7117583453655243e-02</internalNodes>
      <leafValues>
        6.4840763807296753e-01 -6.0000002384185791e-01</leafValues></_>
    <_>
      <internalNodes>
        0 -1 78441 1.6889686230570078e-04</internalNodes>
      <leafValues>
        3.7386748194694519e-01 -8.6065703630447388e-01</leafValues></_>
    <_>
      <internalNodes>
        0 -1 804 -5.0728628411889076e-04</internalNodes>
      <leafValues>
        -8.6714035272598267e-01 2.6076140999794006e-01</leafValues></_>
    <_>
      <internalNodes>
        0 -1 14838 2.7884938754141331e-04</internalNodes>
      <leafValues>
        -7.4237185716629028e-01 2.8737014532089233e-01</leafValues></_>
    <_>
      <internalNodes>
        0 -1 12406 -3.6077433824539185e-01</internalNodes>
      <leafValues>
        7.8214079141616821e-01 -3.3338814973831177e-01</leafValues></_>
    <_>
      <internalNodes>
        0 -1 14496 -7.6292146695777774e-04</internalNodes>
      <leafValues>
        -8.6621588468551636e-01 2.8137639164924622e-01</leafValues></_></weakClassifiers></stage1>
</opencv_storage>
