<?xml version="1.0"?>
<opencv_storage>
<stage4>
  <maxWeakCount>5</maxWeakCount>
  <stageThreshold>-5.1454555988311768e-01</stageThreshold>
  <weakClassifiers>
    <_>
      <internalNodes>
        0 -1 6678 1.9565143156796694e-04</internalNodes>
      <leafValues>
        5.5227273702621460e-01 -8.0000001192092896e-01</leafValues></_>
    <_>
      <internalNodes>
        0 -1 6724 -8.4287306526675820e-04</internalNodes>
      <leafValues>
        -7.6745462417602539e-01 2.8627666831016541e-01</leafValues></_>
    <_>
      <internalNodes>
        0 -1 78459 -5.3966170526109636e-05</internalNodes>
      <leafValues>
        2.8956675529479980e-01 -6.8379968404769897e-01</leafValues></_>
    <_>
      <internalNodes>
        0 -1 50100 -7.5035030022263527e-04</internalNodes>
      <leafValues>
        -8.1430947780609131e-01 2.4163386225700378e-01</leafValues></_>
    <_>
      <internalNodes>
        0 -1 5865 -6.1080809682607651e-02</internalNodes>
      <leafValues>
        4.4134360551834106e-01 -4.6208891272544861e-01</leafValues></_></weakClassifiers></stage4>
</opencv_storage>
