<?xml version="1.0"?>
<opencv_storage>
<stage1>
  <maxWeakCount>5</maxWeakCount>
  <stageThreshold>-4.4628658890724182e-01</stageThreshold>
  <weakClassifiers>
    <_>
      <internalNodes>
        0 -1 92119 -4.4633194804191589e-02</internalNodes>
      <leafValues>
        6.2570887804031372e-01 -5.7115012407302856e-01</leafValues></_>
    <_>
      <internalNodes>
        0 -1 189330 1.4201525482349098e-04</internalNodes>
      <leafValues>
        3.8102480769157410e-01 -7.1955937147140503e-01</leafValues></_>
    <_>
      <internalNodes>
        0 -1 100 -6.2869582325220108e-04</internalNodes>
      <leafValues>
        -8.6976766586303711e-01 2.9191401600837708e-01</leafValues></_>
    <_>
      <internalNodes>
        0 -1 28440 3.2150768674910069e-05</internalNodes>
      <leafValues>
        -7.1086496114730835e-01 2.6973408460617065e-01</leafValues></_>
    <_>
      <internalNodes>
        0 -1 183033 -2.2139615612104535e-04</internalNodes>
      <leafValues>
        -7.7163571119308472e-01 2.8277477622032166e-01</leafValues></_></weakClassifiers></stage1>
</opencv_storage>
