<?xml version="1.0"?>
<opencv_storage>
<stage7>
  <maxWeakCount>8</maxWeakCount>
  <stageThreshold>-6.2000721693038940e-01</stageThreshold>
  <weakClassifiers>
    <_>
      <internalNodes>
        0 -1 89 -6.7693425808101892e-04</internalNodes>
      <leafValues>
        -8.7096774578094482e-01 4.7211897373199463e-01</leafValues></_>
    <_>
      <internalNodes>
        0 -1 14936 1.6590410086791962e-04</internalNodes>
      <leafValues>
        -7.1943604946136475e-01 3.3288472890853882e-01</leafValues></_>
    <_>
      <internalNodes>
        0 -1 26201 -1.4018037915229797e-01</internalNodes>
      <leafValues>
        6.0548573732376099e-01 -4.2977479100227356e-01</leafValues></_>
    <_>
      <internalNodes>
        0 -1 189722 -1.5745655400678515e-03</internalNodes>
      <leafValues>
        6.6895395517349243e-01 -2.5561919808387756e-01</leafValues></_>
    <_>
      <internalNodes>
        0 -1 10761 1.1078387033194304e-03</internalNodes>
      <leafValues>
        2.0274102687835693e-01 -8.5301148891448975e-01</leafValues></_>
    <_>
      <internalNodes>
        0 -1 12901 -1.7425729311071336e-04</internalNodes>
      <leafValues>
        2.6993775367736816e-01 -5.3975886106491089e-01</leafValues></_>
    <_>
      <internalNodes>
        0 -1 69295 -1.9941338896751404e-01</internalNodes>
      <leafValues>
        4.5464706420898438e-01 -3.3264833688735962e-01</leafValues></_>
    <_>
      <internalNodes>
        0 -1 14002 -1.8566309008747339e-03</internalNodes>
      <leafValues>
        -7.9079079627990723e-01 1.9507461786270142e-01</leafValues></_></weakClassifiers></stage7>
</opencv_storage>
